
net {
  name = unnamedBN;
  software = "aGrUM 0.19.3";
  node_size = (50 50);
}

node Pregnancies {
   states = ("(10.000, 10.0000]" "(7.0000, 10.3000]" );
   label = "Pregnancies";
   ID = "Pregnancies";
}

node Glucose {
   states = ("(145.7600, 159.3000]" "(159.00000, 184.4000]" );
   label = "Glucose";
   ID = "Glucose";
}

node BloodPressure {
   states = ("(76.000, 88.0000]" "(88.000, 90.5000]" "(90.00000, 100.0000]" );
   label = "BloodPressure";
   ID = "BloodPressure";
}

node SkinThickness {
   states = ("(-0.000, 2.7000]" "(2.000, 9.8000]" );
   label = "SkinThickness";
   ID = "SkinThickness";
}

node Insulin {
   states = ("(-0.000, 22.0000]" "(22.000, 77.6000]" );
   label = "Insulin";
   ID = "Insulin";
}

node BMI {
   states = ("(24.0699, 30.0000]" "(30.000, 33.1000]" "(33.0000, 36.7000]" );
   label = "BMI";
   ID = "BMI";
}

node DiabetesPedigreeFunction {
   states = ("(0.00, 0.4000]" "(0.0720, 0.0000]" );
   label = "DiabetesPedigreeFunction";
   ID = "DiabetesPedigreeFunction";
}

node Age {
   states = ("(48.3700, 53.9000]" "(53.000, 59.0000]" );
   label = "Age";
   ID = "Age";
}

node Diabetes? {
   states = (No Yes );
   label = "Diabetes?";
   ID = "Diabetes?";
}

potential ( Pregnancies | Glucose   ) {
   data = 
   ((   0.00104822   0.998952)   % Glucose="(145.7600, 159.3000]"   
   (   0.0925926   0.907407));   % Glucose="(159.00000, 184.4000]"   
}

potential ( Glucose | BloodPressure   ) {
   data = 
   ((   0.295455   0.704545)   % BloodPressure="(76.000, 88.0000]"   
   (   0.999138   0.000862069)   % BloodPressure="(88.000, 90.5000]"   
   (   0.990385   0.00961538));   % BloodPressure="(90.00000, 100.0000]"   
}

potential ( BloodPressure | SkinThickness   ) {
   data = 
   ((   0.344183   0.593731   0.0620856)   % SkinThickness="(-0.000, 2.7000]"   
   (   0.00564972   0.988701   0.00564972));   % SkinThickness="(2.000, 9.8000]"   
}

potential (SkinThickness) {
   data = (  0.903595 0.0964052);
}

potential ( Insulin | BMI   SkinThickness   Glucose   BloodPressure   Diabetes?   ) {
   data = 
   ((((((   0.5   0.5)   % Diabetes?=No   BloodPressure="(76.000, 88.0000]"   Glucose="(145.7600, 159.3000]"   SkinThickness="(-0.000, 2.7000]"   BMI="(24.0699, 30.0000]"   
   (   0.999752   0.000247893))   % Diabetes?=Yes   BloodPressure="(76.000, 88.0000]"   Glucose="(145.7600, 159.3000]"   SkinThickness="(-0.000, 2.7000]"   BMI="(24.0699, 30.0000]"   
   ((   0.999133   0.000866551)   % Diabetes?=No   BloodPressure="(88.000, 90.5000]"   Glucose="(145.7600, 159.3000]"   SkinThickness="(-0.000, 2.7000]"   BMI="(24.0699, 30.0000]"   
   (   0.525418   0.474582))   % Diabetes?=Yes   BloodPressure="(88.000, 90.5000]"   Glucose="(145.7600, 159.3000]"   SkinThickness="(-0.000, 2.7000]"   BMI="(24.0699, 30.0000]"   
   ((   0.5   0.5)   % Diabetes?=No   BloodPressure="(90.00000, 100.0000]"   Glucose="(145.7600, 159.3000]"   SkinThickness="(-0.000, 2.7000]"   BMI="(24.0699, 30.0000]"   
   (   0.999592   0.000408163)))   % Diabetes?=Yes   BloodPressure="(90.00000, 100.0000]"   Glucose="(145.7600, 159.3000]"   SkinThickness="(-0.000, 2.7000]"   BMI="(24.0699, 30.0000]"   
   (((   0.5   0.5)   % Diabetes?=No   BloodPressure="(76.000, 88.0000]"   Glucose="(159.00000, 184.4000]"   SkinThickness="(-0.000, 2.7000]"   BMI="(24.0699, 30.0000]"   
   (   0.999896   0.000103627))   % Diabetes?=Yes   BloodPressure="(76.000, 88.0000]"   Glucose="(159.00000, 184.4000]"   SkinThickness="(-0.000, 2.7000]"   BMI="(24.0699, 30.0000]"   
   ((   0.5   0.5)   % Diabetes?=No   BloodPressure="(88.000, 90.5000]"   Glucose="(159.00000, 184.4000]"   SkinThickness="(-0.000, 2.7000]"   BMI="(24.0699, 30.0000]"   
   (   0.5   0.5))   % Diabetes?=Yes   BloodPressure="(88.000, 90.5000]"   Glucose="(159.00000, 184.4000]"   SkinThickness="(-0.000, 2.7000]"   BMI="(24.0699, 30.0000]"   
   ((   0.5   0.5)   % Diabetes?=No   BloodPressure="(90.00000, 100.0000]"   Glucose="(159.00000, 184.4000]"   SkinThickness="(-0.000, 2.7000]"   BMI="(24.0699, 30.0000]"   
   (   0.5   0.5))))   % Diabetes?=Yes   BloodPressure="(90.00000, 100.0000]"   Glucose="(159.00000, 184.4000]"   SkinThickness="(-0.000, 2.7000]"   BMI="(24.0699, 30.0000]"   
   ((((   0.5   0.5)   % Diabetes?=No   BloodPressure="(76.000, 88.0000]"   Glucose="(145.7600, 159.3000]"   SkinThickness="(2.000, 9.8000]"   BMI="(24.0699, 30.0000]"   
   (   0.5   0.5))   % Diabetes?=Yes   BloodPressure="(76.000, 88.0000]"   Glucose="(145.7600, 159.3000]"   SkinThickness="(2.000, 9.8000]"   BMI="(24.0699, 30.0000]"   
   ((   0.5   0.5)   % Diabetes?=No   BloodPressure="(88.000, 90.5000]"   Glucose="(145.7600, 159.3000]"   SkinThickness="(2.000, 9.8000]"   BMI="(24.0699, 30.0000]"   
   (   0.999761   0.000239349))   % Diabetes?=Yes   BloodPressure="(88.000, 90.5000]"   Glucose="(145.7600, 159.3000]"   SkinThickness="(2.000, 9.8000]"   BMI="(24.0699, 30.0000]"   
   ((   0.5   0.5)   % Diabetes?=No   BloodPressure="(90.00000, 100.0000]"   Glucose="(145.7600, 159.3000]"   SkinThickness="(2.000, 9.8000]"   BMI="(24.0699, 30.0000]"   
   (   0.5   0.5)))   % Diabetes?=Yes   BloodPressure="(90.00000, 100.0000]"   Glucose="(145.7600, 159.3000]"   SkinThickness="(2.000, 9.8000]"   BMI="(24.0699, 30.0000]"   
   (((   0.5   0.5)   % Diabetes?=No   BloodPressure="(76.000, 88.0000]"   Glucose="(159.00000, 184.4000]"   SkinThickness="(2.000, 9.8000]"   BMI="(24.0699, 30.0000]"   
   (   0.5   0.5))   % Diabetes?=Yes   BloodPressure="(76.000, 88.0000]"   Glucose="(159.00000, 184.4000]"   SkinThickness="(2.000, 9.8000]"   BMI="(24.0699, 30.0000]"   
   ((   0.5   0.5)   % Diabetes?=No   BloodPressure="(88.000, 90.5000]"   Glucose="(159.00000, 184.4000]"   SkinThickness="(2.000, 9.8000]"   BMI="(24.0699, 30.0000]"   
   (   0.5   0.5))   % Diabetes?=Yes   BloodPressure="(88.000, 90.5000]"   Glucose="(159.00000, 184.4000]"   SkinThickness="(2.000, 9.8000]"   BMI="(24.0699, 30.0000]"   
   ((   0.5   0.5)   % Diabetes?=No   BloodPressure="(90.00000, 100.0000]"   Glucose="(159.00000, 184.4000]"   SkinThickness="(2.000, 9.8000]"   BMI="(24.0699, 30.0000]"   
   (   0.5   0.5)))))   % Diabetes?=Yes   BloodPressure="(90.00000, 100.0000]"   Glucose="(159.00000, 184.4000]"   SkinThickness="(2.000, 9.8000]"   BMI="(24.0699, 30.0000]"   
   (((((   0.5   0.5)   % Diabetes?=No   BloodPressure="(76.000, 88.0000]"   Glucose="(145.7600, 159.3000]"   SkinThickness="(-0.000, 2.7000]"   BMI="(30.000, 33.1000]"   
   (   0.5   0.5))   % Diabetes?=Yes   BloodPressure="(76.000, 88.0000]"   Glucose="(145.7600, 159.3000]"   SkinThickness="(-0.000, 2.7000]"   BMI="(30.000, 33.1000]"   
   ((   0.5   0.5)   % Diabetes?=No   BloodPressure="(88.000, 90.5000]"   Glucose="(145.7600, 159.3000]"   SkinThickness="(-0.000, 2.7000]"   BMI="(30.000, 33.1000]"   
   (   0.999922   7.80153e-05))   % Diabetes?=Yes   BloodPressure="(88.000, 90.5000]"   Glucose="(145.7600, 159.3000]"   SkinThickness="(-0.000, 2.7000]"   BMI="(30.000, 33.1000]"   
   ((   0.5   0.5)   % Diabetes?=No   BloodPressure="(90.00000, 100.0000]"   Glucose="(145.7600, 159.3000]"   SkinThickness="(-0.000, 2.7000]"   BMI="(30.000, 33.1000]"   
   (   0.5   0.5)))   % Diabetes?=Yes   BloodPressure="(90.00000, 100.0000]"   Glucose="(145.7600, 159.3000]"   SkinThickness="(-0.000, 2.7000]"   BMI="(30.000, 33.1000]"   
   (((   0.5   0.5)   % Diabetes?=No   BloodPressure="(76.000, 88.0000]"   Glucose="(159.00000, 184.4000]"   SkinThickness="(-0.000, 2.7000]"   BMI="(30.000, 33.1000]"   
   (   0.5   0.5))   % Diabetes?=Yes   BloodPressure="(76.000, 88.0000]"   Glucose="(159.00000, 184.4000]"   SkinThickness="(-0.000, 2.7000]"   BMI="(30.000, 33.1000]"   
   ((   0.5   0.5)   % Diabetes?=No   BloodPressure="(88.000, 90.5000]"   Glucose="(159.00000, 184.4000]"   SkinThickness="(-0.000, 2.7000]"   BMI="(30.000, 33.1000]"   
   (   0.5   0.5))   % Diabetes?=Yes   BloodPressure="(88.000, 90.5000]"   Glucose="(159.00000, 184.4000]"   SkinThickness="(-0.000, 2.7000]"   BMI="(30.000, 33.1000]"   
   ((   0.5   0.5)   % Diabetes?=No   BloodPressure="(90.00000, 100.0000]"   Glucose="(159.00000, 184.4000]"   SkinThickness="(-0.000, 2.7000]"   BMI="(30.000, 33.1000]"   
   (   0.5   0.5))))   % Diabetes?=Yes   BloodPressure="(90.00000, 100.0000]"   Glucose="(159.00000, 184.4000]"   SkinThickness="(-0.000, 2.7000]"   BMI="(30.000, 33.1000]"   
   ((((   0.5   0.5)   % Diabetes?=No   BloodPressure="(76.000, 88.0000]"   Glucose="(145.7600, 159.3000]"   SkinThickness="(2.000, 9.8000]"   BMI="(30.000, 33.1000]"   
   (   0.5   0.5))   % Diabetes?=Yes   BloodPressure="(76.000, 88.0000]"   Glucose="(145.7600, 159.3000]"   SkinThickness="(2.000, 9.8000]"   BMI="(30.000, 33.1000]"   
   ((   0.5   0.5)   % Diabetes?=No   BloodPressure="(88.000, 90.5000]"   Glucose="(145.7600, 159.3000]"   SkinThickness="(2.000, 9.8000]"   BMI="(30.000, 33.1000]"   
   (   0.5   0.5))   % Diabetes?=Yes   BloodPressure="(88.000, 90.5000]"   Glucose="(145.7600, 159.3000]"   SkinThickness="(2.000, 9.8000]"   BMI="(30.000, 33.1000]"   
   ((   0.5   0.5)   % Diabetes?=No   BloodPressure="(90.00000, 100.0000]"   Glucose="(145.7600, 159.3000]"   SkinThickness="(2.000, 9.8000]"   BMI="(30.000, 33.1000]"   
   (   0.5   0.5)))   % Diabetes?=Yes   BloodPressure="(90.00000, 100.0000]"   Glucose="(145.7600, 159.3000]"   SkinThickness="(2.000, 9.8000]"   BMI="(30.000, 33.1000]"   
   (((   0.5   0.5)   % Diabetes?=No   BloodPressure="(76.000, 88.0000]"   Glucose="(159.00000, 184.4000]"   SkinThickness="(2.000, 9.8000]"   BMI="(30.000, 33.1000]"   
   (   0.5   0.5))   % Diabetes?=Yes   BloodPressure="(76.000, 88.0000]"   Glucose="(159.00000, 184.4000]"   SkinThickness="(2.000, 9.8000]"   BMI="(30.000, 33.1000]"   
   ((   0.5   0.5)   % Diabetes?=No   BloodPressure="(88.000, 90.5000]"   Glucose="(159.00000, 184.4000]"   SkinThickness="(2.000, 9.8000]"   BMI="(30.000, 33.1000]"   
   (   0.5   0.5))   % Diabetes?=Yes   BloodPressure="(88.000, 90.5000]"   Glucose="(159.00000, 184.4000]"   SkinThickness="(2.000, 9.8000]"   BMI="(30.000, 33.1000]"   
   ((   0.5   0.5)   % Diabetes?=No   BloodPressure="(90.00000, 100.0000]"   Glucose="(159.00000, 184.4000]"   SkinThickness="(2.000, 9.8000]"   BMI="(30.000, 33.1000]"   
   (   0.5   0.5)))))   % Diabetes?=Yes   BloodPressure="(90.00000, 100.0000]"   Glucose="(159.00000, 184.4000]"   SkinThickness="(2.000, 9.8000]"   BMI="(30.000, 33.1000]"   
   (((((   0.5   0.5)   % Diabetes?=No   BloodPressure="(76.000, 88.0000]"   Glucose="(145.7600, 159.3000]"   SkinThickness="(-0.000, 2.7000]"   BMI="(33.0000, 36.7000]"   
   (   0.5   0.5))   % Diabetes?=Yes   BloodPressure="(76.000, 88.0000]"   Glucose="(145.7600, 159.3000]"   SkinThickness="(-0.000, 2.7000]"   BMI="(33.0000, 36.7000]"   
   ((   0.5   0.5)   % Diabetes?=No   BloodPressure="(88.000, 90.5000]"   Glucose="(145.7600, 159.3000]"   SkinThickness="(-0.000, 2.7000]"   BMI="(33.0000, 36.7000]"   
   (   0.999133   0.000866551))   % Diabetes?=Yes   BloodPressure="(88.000, 90.5000]"   Glucose="(145.7600, 159.3000]"   SkinThickness="(-0.000, 2.7000]"   BMI="(33.0000, 36.7000]"   
   ((   0.5   0.5)   % Diabetes?=No   BloodPressure="(90.00000, 100.0000]"   Glucose="(145.7600, 159.3000]"   SkinThickness="(-0.000, 2.7000]"   BMI="(33.0000, 36.7000]"   
   (   0.5   0.5)))   % Diabetes?=Yes   BloodPressure="(90.00000, 100.0000]"   Glucose="(145.7600, 159.3000]"   SkinThickness="(-0.000, 2.7000]"   BMI="(33.0000, 36.7000]"   
   (((   0.5   0.5)   % Diabetes?=No   BloodPressure="(76.000, 88.0000]"   Glucose="(159.00000, 184.4000]"   SkinThickness="(-0.000, 2.7000]"   BMI="(33.0000, 36.7000]"   
   (   0.5   0.5))   % Diabetes?=Yes   BloodPressure="(76.000, 88.0000]"   Glucose="(159.00000, 184.4000]"   SkinThickness="(-0.000, 2.7000]"   BMI="(33.0000, 36.7000]"   
   ((   0.5   0.5)   % Diabetes?=No   BloodPressure="(88.000, 90.5000]"   Glucose="(159.00000, 184.4000]"   SkinThickness="(-0.000, 2.7000]"   BMI="(33.0000, 36.7000]"   
   (   0.5   0.5))   % Diabetes?=Yes   BloodPressure="(88.000, 90.5000]"   Glucose="(159.00000, 184.4000]"   SkinThickness="(-0.000, 2.7000]"   BMI="(33.0000, 36.7000]"   
   ((   0.5   0.5)   % Diabetes?=No   BloodPressure="(90.00000, 100.0000]"   Glucose="(159.00000, 184.4000]"   SkinThickness="(-0.000, 2.7000]"   BMI="(33.0000, 36.7000]"   
   (   0.5   0.5))))   % Diabetes?=Yes   BloodPressure="(90.00000, 100.0000]"   Glucose="(159.00000, 184.4000]"   SkinThickness="(-0.000, 2.7000]"   BMI="(33.0000, 36.7000]"   
   ((((   0.5   0.5)   % Diabetes?=No   BloodPressure="(76.000, 88.0000]"   Glucose="(145.7600, 159.3000]"   SkinThickness="(2.000, 9.8000]"   BMI="(33.0000, 36.7000]"   
   (   0.5   0.5))   % Diabetes?=Yes   BloodPressure="(76.000, 88.0000]"   Glucose="(145.7600, 159.3000]"   SkinThickness="(2.000, 9.8000]"   BMI="(33.0000, 36.7000]"   
   ((   0.5   0.5)   % Diabetes?=No   BloodPressure="(88.000, 90.5000]"   Glucose="(145.7600, 159.3000]"   SkinThickness="(2.000, 9.8000]"   BMI="(33.0000, 36.7000]"   
   (   0.5   0.5))   % Diabetes?=Yes   BloodPressure="(88.000, 90.5000]"   Glucose="(145.7600, 159.3000]"   SkinThickness="(2.000, 9.8000]"   BMI="(33.0000, 36.7000]"   
   ((   0.5   0.5)   % Diabetes?=No   BloodPressure="(90.00000, 100.0000]"   Glucose="(145.7600, 159.3000]"   SkinThickness="(2.000, 9.8000]"   BMI="(33.0000, 36.7000]"   
   (   0.5   0.5)))   % Diabetes?=Yes   BloodPressure="(90.00000, 100.0000]"   Glucose="(145.7600, 159.3000]"   SkinThickness="(2.000, 9.8000]"   BMI="(33.0000, 36.7000]"   
   (((   0.5   0.5)   % Diabetes?=No   BloodPressure="(76.000, 88.0000]"   Glucose="(159.00000, 184.4000]"   SkinThickness="(2.000, 9.8000]"   BMI="(33.0000, 36.7000]"   
   (   0.5   0.5))   % Diabetes?=Yes   BloodPressure="(76.000, 88.0000]"   Glucose="(159.00000, 184.4000]"   SkinThickness="(2.000, 9.8000]"   BMI="(33.0000, 36.7000]"   
   ((   0.5   0.5)   % Diabetes?=No   BloodPressure="(88.000, 90.5000]"   Glucose="(159.00000, 184.4000]"   SkinThickness="(2.000, 9.8000]"   BMI="(33.0000, 36.7000]"   
   (   0.5   0.5))   % Diabetes?=Yes   BloodPressure="(88.000, 90.5000]"   Glucose="(159.00000, 184.4000]"   SkinThickness="(2.000, 9.8000]"   BMI="(33.0000, 36.7000]"   
   ((   0.5   0.5)   % Diabetes?=No   BloodPressure="(90.00000, 100.0000]"   Glucose="(159.00000, 184.4000]"   SkinThickness="(2.000, 9.8000]"   BMI="(33.0000, 36.7000]"   
   (   0.5   0.5))))));   % Diabetes?=Yes   BloodPressure="(90.00000, 100.0000]"   Glucose="(159.00000, 184.4000]"   SkinThickness="(2.000, 9.8000]"   BMI="(33.0000, 36.7000]"   
}

potential ( BMI | BloodPressure   Diabetes?   SkinThickness   ) {
   data = 
   ((((   0.333333   0.333333   0.333333)   % SkinThickness="(-0.000, 2.7000]"   Diabetes?=No   BloodPressure="(76.000, 88.0000]"   
   (   0.333333   0.333333   0.333333))   % SkinThickness="(2.000, 9.8000]"   Diabetes?=No   BloodPressure="(76.000, 88.0000]"   
   ((   0.999416   0.000292141   0.000292141)   % SkinThickness="(-0.000, 2.7000]"   Diabetes?=Yes   BloodPressure="(76.000, 88.0000]"   
   (   0.333333   0.333333   0.333333)))   % SkinThickness="(2.000, 9.8000]"   Diabetes?=Yes   BloodPressure="(76.000, 88.0000]"   
   (((   0.993127   0.00343643   0.00343643)   % SkinThickness="(-0.000, 2.7000]"   Diabetes?=No   BloodPressure="(88.000, 90.5000]"   
   (   0.333333   0.333333   0.333333))   % SkinThickness="(2.000, 9.8000]"   Diabetes?=No   BloodPressure="(88.000, 90.5000]"   
   ((   0.378181   0.570386   0.0514326)   % SkinThickness="(-0.000, 2.7000]"   Diabetes?=Yes   BloodPressure="(88.000, 90.5000]"   
   (   0.99809   0.00095511   0.00095511)))   % SkinThickness="(2.000, 9.8000]"   Diabetes?=Yes   BloodPressure="(88.000, 90.5000]"   
   (((   0.333333   0.333333   0.333333)   % SkinThickness="(-0.000, 2.7000]"   Diabetes?=No   BloodPressure="(90.00000, 100.0000]"   
   (   0.333333   0.333333   0.333333))   % SkinThickness="(2.000, 9.8000]"   Diabetes?=No   BloodPressure="(90.00000, 100.0000]"   
   ((   0.996748   0.00162602   0.00162602)   % SkinThickness="(-0.000, 2.7000]"   Diabetes?=Yes   BloodPressure="(90.00000, 100.0000]"   
   (   0.333333   0.333333   0.333333))));   % SkinThickness="(2.000, 9.8000]"   Diabetes?=Yes   BloodPressure="(90.00000, 100.0000]"   
}

potential ( DiabetesPedigreeFunction | Age   BMI   ) {
   data = 
   (((   0.00040032   0.9996)   % BMI="(24.0699, 30.0000]"   Age="(48.3700, 53.9000]"   
   (   0.270787   0.729213)   % BMI="(30.000, 33.1000]"   Age="(48.3700, 53.9000]"   
   (   0.0102041   0.989796))   % BMI="(33.0000, 36.7000]"   Age="(48.3700, 53.9000]"   
   ((   0.5   0.5)   % BMI="(24.0699, 30.0000]"   Age="(53.000, 59.0000]"   
   (   0.00549451   0.994505)   % BMI="(30.000, 33.1000]"   Age="(53.000, 59.0000]"   
   (   0.5   0.5)));   % BMI="(33.0000, 36.7000]"   Age="(53.000, 59.0000]"   
}

potential ( Age | BMI   ) {
   data = 
   ((   0.9992   0.0008)   % BMI="(24.0699, 30.0000]"   
   (   0.830224   0.169776)   % BMI="(30.000, 33.1000]"   
   (   0.98   0.02));   % BMI="(33.0000, 36.7000]"   
}

potential ( Diabetes? | SkinThickness   BloodPressure   ) {
   data = 
   (((   0.000875657   0.999124)   % BloodPressure="(76.000, 88.0000]"   SkinThickness="(-0.000, 2.7000]"   
   (   0.0492386   0.950761)   % BloodPressure="(88.000, 90.5000]"   SkinThickness="(-0.000, 2.7000]"   
   (   0.00485437   0.995146))   % BloodPressure="(90.00000, 100.0000]"   SkinThickness="(-0.000, 2.7000]"   
   ((   0.5   0.5)   % BloodPressure="(76.000, 88.0000]"   SkinThickness="(2.000, 9.8000]"   
   (   0.00285714   0.997143)   % BloodPressure="(88.000, 90.5000]"   SkinThickness="(2.000, 9.8000]"   
   (   0.5   0.5)));   % BloodPressure="(90.00000, 100.0000]"   SkinThickness="(2.000, 9.8000]"   
}


